svm_type c_svc
kernel_type linear
nr_class 2
total_sv 891
rho 0.9799132838741197
label 1 -1
nr_sv 446 445
SV
1.0 1:3.3322046 2:2.1972246 
1.0 1:2.4849067 2:1.609438 
1.0 1:2.3978953 2:1.7917595 
1.0 1:1.7917595 2:1.0986123 
1.0 1:1.609438 2:1.0986123 
1.0 1:2.9957323 2:2.1972246 
1.0 1:2.0794415 2:1.3862944 
1.0 1:2.5649493 2:1.7917595 
1.0 1:1.609438 2:1.0986123 
1.0 1:2.0794415 2:1.3862944 
1.0 1:2.7080503 2:1.9459101 
1.0 1:1.0986123 2:0.6931472 
1.0 1:1.0986123 2:0.6931472 
1.0 1:1.7917595 2:1.0986123 
1.0 1:1.7917595 2:1.0986123 
1.0 1:4.248495 2:3.0910425 
1.0 1:4.158883 2:3.1354942 
1.0 1:2.3978953 2:1.7917595 
1.0 1:1.609438 2:1.0986123 
1.0 1:2.5649493 2:1.7917595 
1.0 1:1.7917595 2:1.0986123 
1.0 1:2.1972246 2:1.3862944 
1.0 1:1.609438 2:1.0986123 
1.0 1:3.2580965 2:2.3025851 
1.0 1:3.465736 2:2.3978953 
1.0 1:2.3025851 2:1.7917595 
1.0 1:2.4849067 2:1.7917595 
1.0 1:3.0445225 2:2.1972246 
1.0 1:4.248495 2:3.2580965 
1.0 1:1.0986123 2:0.6931472 
1.0 1:2.1972246 2:1.609438 
1.0 1:3.1354942 2:2.3978953 
1.0 1:2.1972246 2:1.3862944 
1.0 1:2.1972246 2:1.3862944 
1.0 1:2.3025851 2:1.3862944 
1.0 1:1.0986123 2:0.6931472 
1.0 1:2.3025851 2:1.3862944 
1.0 1:2.1972246 2:1.3862944 
1.0 1:2.8903718 2:2.1972246 
1.0 1:1.0986123 2:0.6931472 
1.0 1:3.3322046 2:2.3025851 
1.0 1:2.6390574 2:1.7917595 
1.0 1:2.0794415 2:1.3862944 
1.0 1:2.8903718 2:2.0794415 
1.0 1:2.3978953 2:1.7917595 
1.0 1:2.7725887 2:1.7917595 
1.0 1:1.609438 2:1.0986123 
1.0 1:2.6390574 2:1.7917595 
1.0 1:1.609438 2:1.0986123 
1.0 1:1.609438 2:1.0986123 
1.0 1:2.0794415 2:1.3862944 
1.0 1:1.7917595 2:1.0986123 
1.6203526135681113E-4 1:1.3862944 2:0.6931472 
1.0 1:1.609438 2:1.0986123 
1.0 1:2.3025851 2:1.3862944 
1.0 1:2.3025851 2:1.3862944 
1.0 1:2.7725887 2:1.7917595 
0.4021554294611322 1:1.3862944 2:0.6931472 
1.0 1:1.7917595 2:1.0986123 
1.0 1:1.3862944 2:0.6931472 
1.0 1:1.0986123 2:0.6931472 
1.0 1:1.0986123 2:0.6931472 
1.0 1:1.3862944 2:0.6931472 
1.0 1:1.0986123 2:0.6931472 
1.0 1:1.609438 2:1.0986123 
1.0 1:2.8903718 2:1.9459101 
1.0 1:1.0986123 2:0.6931472 
1.0 1:3.295837 2:2.5649493 
1.0 1:1.0986123 2:0.6931472 
1.0 1:1.7917595 2:1.0986123 
1.0 1:2.0794415 2:1.3862944 
1.0 1:1.609438 2:1.0986123 
1.0 1:3.3672957 2:2.1972246 
1.0 1:1.0986123 2:0.6931472 
1.0 1:2.4849067 2:1.7917595 
1.0 1:1.0986123 2:0.6931472 
1.0 1:2.8332133 2:2.1972246 
1.0 1:2.0794415 2:1.3862944 
1.0 1:1.3862944 2:0.6931472 
1.0 1:1.609438 2:1.0986123 
1.0 1:2.1972246 2:1.3862944 
1.0 1:2.9957323 2:2.1972246 
1.0 1:1.9459101 2:1.3862944 
1.0 1:2.7725887 2:1.9459101 
1.0 1:2.1972246 2:1.609438 
1.0 1:2.8903718 2:1.9459101 
1.0 1:1.0986123 2:0.6931472 
1.0 1:2.3025851 2:1.3862944 
1.0 1:2.7725887 2:2.1972246 
1.0 1:2.944439 2:2.1972246 
1.0 1:1.9459101 2:1.3862944 
1.0 1:1.0986123 2:0.6931472 
1.0 1:1.0986123 2:0.6931472 
1.0 1:2.3025851 2:1.3862944 
1.0 1:1.0986123 2:0.6931472 
1.0 1:1.7917595 2:1.0986123 
1.0 1:2.3025851 2:1.609438 
1.0 1:2.944439 2:2.3978953 
1.0 1:2.7080503 2:1.9459101 
1.0 1:1.0986123 2:0.6931472 
1.0 1:1.3862944 2:0.6931472 
1.0 1:1.9459101 2:1.3862944 
1.0 1:1.3862944 2:0.6931472 
1.0 1:1.9459101 2:1.3862944 
1.0 1:2.3978953 2:1.7917595 
1.0 1:1.609438 2:1.0986123 
1.0 1:1.0986123 2:0.6931472 
1.0 1:1.0986123 2:0.6931472 
1.0 1:1.3862944 2:0.6931472 
1.0 1:1.7917595 2:1.0986123 
1.0 1:4.189655 2:3.0910425 
1.0 1:1.3862944 2:0.6931472 
1.0 1:1.3862944 2:0.6931472 
1.0 1:2.9957323 2:2.0794415 
1.0 1:2.0794415 2:1.3862944 
1.0 1:1.3862944 2:0.6931472 
1.0 1:3.3672957 2:2.1972246 
1.0 1:2.7080503 2:1.9459101 
1.0 1:2.3025851 2:1.3862944 
1.0 1:1.7917595 2:1.0986123 
1.0 1:4.762174 2:3.3672957 
1.0 1:2.6390574 2:1.9459101 
1.0 1:1.609438 2:1.0986123 
1.0 1:1.609438 2:1.0986123 
1.0 1:1.3862944 2:0.6931472 
1.0 1:2.0794415 2:1.3862944 
1.0 1:1.609438 2:1.0986123 
1.0 1:1.7917595 2:1.0986123 
1.0 1:1.3862944 2:0.6931472 
1.0 1:2.7080503 2:1.7917595 
1.0 1:1.0986123 2:0.6931472 
1.0 1:3.8918202 2:2.8332133 
1.0 1:2.1972246 2:1.609438 
1.0 1:1.3862944 2:0.6931472 
1.0 1:1.3862944 2:0.6931472 
1.0 1:3.1354942 2:2.0794415 
1.0 1:1.0986123 2:0.6931472 
1.0 1:2.3025851 2:1.609438 
1.0 1:1.3862944 2:0.6931472 
1.0 1:2.0794415 2:1.3862944 
1.0 1:1.7917595 2:1.0986123 
1.0 1:2.0794415 2:1.3862944 
1.0 1:4.691348 2:3.6888795 
1.0 1:1.7917595 2:1.0986123 
1.0 1:2.4849067 2:1.609438 
1.0 1:3.4339871 2:2.4849067 
1.0 1:1.9459101 2:1.3862944 
1.0 1:1.0986123 2:0.6931472 
1.0 1:1.7917595 2:1.0986123 
1.0 1:1.609438 2:1.0986123 
1.0 1:2.0794415 2:1.3862944 
1.0 1:1.0986123 2:0.6931472 
1.0 1:2.8332133 2:1.7917595 
1.0 1:1.3862944 2:0.6931472 
1.0 1:2.1972246 2:1.609438 
1.0 1:3.3672957 2:2.3978953 
1.0 1:2.3978953 2:1.609438 
1.0 1:2.4849067 2:1.7917595 
1.0 1:1.0986123 2:0.6931472 
1.0 1:3.218876 2:2.1972246 
1.0 1:1.609438 2:1.0986123 
1.0 1:3.295837 2:2.5649493 
1.0 1:1.609438 2:1.0986123 
1.0 1:2.1972246 2:1.609438 
1.0 1:1.7917595 2:1.0986123 
1.0 1:2.3025851 2:1.3862944 
1.0 1:1.3862944 2:0.6931472 
1.0 1:1.0986123 2:0.6931472 
1.0 1:1.3862944 2:0.6931472 
1.0 1:2.0794415 2:1.3862944 
1.0 1:1.609438 2:1.0986123 
1.0 1:1.0986123 2:0.6931472 
1.0 1:1.0986123 2:0.6931472 
1.0 1:1.3862944 2:0.6931472 
1.0 1:1.609438 2:1.0986123 
1.0 1:1.3862944 2:0.6931472 
1.0 1:1.0986123 2:0.6931472 
1.0 1:3.465736 2:2.3978953 
1.0 1:1.7917595 2:1.0986123 
1.0 1:2.9957323 2:2.0794415 
1.0 1:1.0986123 2:0.6931472 
1.0 1:1.3862944 2:0.6931472 
1.0 1:2.1972246 2:1.3862944 
1.0 1:3.6635616 2:2.8332133 
1.0 1:2.1972246 2:1.3862944 
1.0 1:1.3862944 2:0.6931472 
1.0 1:2.4849067 2:1.609438 
1.0 1:1.7917595 2:1.0986123 
1.0 1:1.609438 2:1.0986123 
1.0 1:1.0986123 2:0.6931472 
1.0 1:1.7917595 2:1.0986123 
1.0 1:2.8332133 2:1.7917595 
1.0 1:2.3025851 2:1.3862944 
1.0 1:1.9459101 2:1.3862944 
1.0 1:1.0986123 2:0.6931472 
1.0 1:1.3862944 2:0.6931472 
1.0 1:1.0986123 2:0.6931472 
1.0 1:1.0986123 2:0.6931472 
1.0 1:2.7080503 2:1.9459101 
1.0 1:2.0794415 2:1.3862944 
1.0 1:4.3820267 2:3.218876 
1.0 1:1.0986123 2:0.6931472 
1.0 1:3.3322046 2:2.3025851 
1.0 1:5.398163 2:4.6821313 
1.0 1:2.3025851 2:1.7917595 
1.0 1:1.3862944 2:0.6931472 
1.0 1:1.9459101 2:1.3862944 
1.0 1:1.3862944 2:0.6931472 
1.0 1:1.3862944 2:0.6931472 
1.0 1:1.3862944 2:0.6931472 
1.0 1:2.1972246 2:1.3862944 
1.0 1:3.4011974 2:2.4849067 
1.0 1:3.0910425 2:2.3025851 
1.0 1:2.1972246 2:1.609438 
1.0 1:1.0986123 2:0.6931472 
1.0 1:3.218876 2:2.0794415 
1.0 1:1.3862944 2:0.6931472 
1.0 1:1.0986123 2:0.6931472 
1.0 1:4.8751974 2:3.9318256 
1.0 1:2.6390574 2:1.7917595 
1.0 1:2.4849067 2:1.7917595 
1.0 1:1.0986123 2:0.6931472 
1.0 1:1.609438 2:1.0986123 
1.0 1:3.218876 2:2.5649493 
1.0 1:1.3862944 2:0.6931472 
1.0 1:1.7917595 2:1.0986123 
1.0 1:1.3862944 2:0.6931472 
1.0 1:1.0986123 2:0.6931472 
1.0 1:2.1972246 2:1.3862944 
1.0 1:3.2580965 2:2.4849067 
1.0 1:3.0910425 2:2.0794415 
1.0 1:2.3025851 2:1.609438 
1.0 1:2.0794415 2:1.3862944 
1.0 1:1.3862944 2:0.6931472 
1.0 1:3.1780539 2:2.0794415 
1.0 1:2.7080503 2:1.9459101 
1.0 1:2.3025851 2:1.609438 
1.0 1:1.609438 2:1.0986123 
1.0 1:1.0986123 2:0.6931472 
1.0 1:1.0986123 2:0.6931472 
1.0 1:2.5649493 2:1.9459101 
1.0 1:2.0794415 2:1.3862944 
1.0 1:2.1972246 2:1.3862944 
1.0 1:2.3025851 2:1.3862944 
1.0 1:2.3025851 2:1.3862944 
1.0 1:1.3862944 2:0.6931472 
1.0 1:2.7725887 2:2.0794415 
1.0 1:3.465736 2:2.3025851 
1.0 1:2.8332133 2:1.9459101 
1.0 1:2.3978953 2:1.609438 
1.0 1:2.8332133 2:1.9459101 
1.0 1:1.3862944 2:0.6931472 
1.0 1:1.7917595 2:1.0986123 
1.0 1:1.0986123 2:0.6931472 
1.0 1:2.7080503 2:1.9459101 
1.0 1:2.3025851 2:1.609438 
1.0 1:1.9459101 2:1.3862944 
1.0 1:2.7080503 2:2.0794415 
1.0 1:1.609438 2:1.0986123 
1.0 1:2.7725887 2:1.9459101 
1.0 1:2.4849067 2:1.9459101 
1.0 1:1.0986123 2:0.6931472 
1.0 1:1.3862944 2:0.6931472 
1.0 1:3.0445225 2:2.1972246 
1.0 1:2.7725887 2:1.7917595 
1.0 1:2.7080503 2:1.7917595 
1.0 1:2.3978953 2:1.609438 
1.0 1:3.465736 2:2.3978953 
1.0 1:2.4849067 2:1.609438 
1.0 1:1.3862944 2:0.6931472 
1.0 1:4.65396 2:3.7612002 
1.0 1:1.0986123 2:0.6931472 
1.0 1:1.0986123 2:0.6931472 
1.0 1:2.0794415 2:1.3862944 
1.0 1:2.3025851 2:1.3862944 
1.0 1:1.0986123 2:0.6931472 
1.0 1:1.3862944 2:0.6931472 
1.0 1:1.3862944 2:0.6931472 
1.0 1:1.3862944 2:0.6931472 
1.0 1:1.3862944 2:0.6931472 
1.0 1:3.7841897 2:2.7080503 
1.0 1:2.7725887 2:1.7917595 
1.0 1:1.3862944 2:0.6931472 
1.0 1:1.3862944 2:0.6931472 
1.0 1:2.1972246 2:1.3862944 
1.0 1:1.3862944 2:0.6931472 
1.0 1:1.0986123 2:0.6931472 
1.0 1:2.4849067 2:1.7917595 
1.0 1:4.1431346 2:2.9957323 
1.0 1:3.4965076 2:2.7725887 
1.0 1:1.3862944 2:0.6931472 
1.0 1:2.1972246 2:1.609438 
1.0 1:1.609438 2:1.0986123 
1.0 1:2.7080503 2:1.9459101 
1.0 1:1.0986123 2:0.6931472 
1.0 1:1.0986123 2:0.6931472 
1.0 1:2.3025851 2:1.609438 
1.0 1:1.3862944 2:0.6931472 
1.0 1:2.4849067 2:1.7917595 
1.0 1:1.0986123 2:0.6931472 
1.0 1:3.4339871 2:2.4849067 
1.0 1:2.7725887 2:2.0794415 
1.0 1:3.0910425 2:2.1972246 
1.0 1:4.75359 2:3.8286414 
1.0 1:2.1972246 2:1.3862944 
1.0 1:2.3978953 2:1.609438 
1.0 1:2.5649493 2:1.609438 
1.0 1:2.3978953 2:1.609438 
1.0 1:2.3025851 2:1.3862944 
1.0 1:3.1354942 2:2.4849067 
1.0 1:3.218876 2:2.3978953 
1.0 1:1.3862944 2:0.6931472 
1.0 1:3.4965076 2:2.6390574 
1.0 1:1.0986123 2:0.6931472 
1.0 1:1.9459101 2:1.3862944 
1.0 1:1.7917595 2:1.0986123 
1.0 1:1.7917595 2:1.0986123 
1.0 1:3.5553482 2:2.3978953 
1.0 1:1.3862944 2:0.6931472 
1.0 1:1.3862944 2:0.6931472 
1.0 1:3.583519 2:2.6390574 
1.0 1:2.4849067 2:1.7917595 
1.0 1:1.3862944 2:0.6931472 
1.0 1:3.7841897 2:2.4849067 
1.0 1:2.4849067 2:1.609438 
1.0 1:1.3862944 2:0.6931472 
1.0 1:3.0445225 2:2.3978953 
1.0 1:2.8332133 2:1.9459101 
1.0 1:1.3862944 2:0.6931472 
1.0 1:1.0986123 2:0.6931472 
1.0 1:2.1972246 2:1.3862944 
1.0 1:1.0986123 2:0.6931472 
1.0 1:2.9957323 2:2.1972246 
1.0 1:2.1972246 2:1.609438 
1.0 1:2.5649493 2:1.609438 
1.0 1:1.9459101 2:1.3862944 
1.0 1:3.2580965 2:2.7080503 
1.0 1:1.609438 2:1.0986123 
1.0 1:3.295837 2:2.5649493 
1.0 1:2.8332133 2:1.7917595 
1.0 1:1.3862944 2:0.6931472 
1.0 1:1.0986123 2:0.6931472 
1.0 1:1.3862944 2:0.6931472 
1.0 1:2.3025851 2:1.609438 
1.0 1:1.0986123 2:0.6931472 
1.0 1:1.3862944 2:0.6931472 
1.0 1:1.3862944 2:0.6931472 
1.0 1:4.189655 2:3.0910425 
1.0 1:3.218876 2:2.4849067 
1.0 1:2.4849067 2:1.609438 
1.0 1:1.3862944 2:0.6931472 
1.0 1:1.0986123 2:0.6931472 
1.0 1:1.3862944 2:0.6931472 
1.0 1:1.609438 2:1.0986123 
1.0 1:2.3025851 2:1.3862944 
1.0 1:2.4849067 2:1.609438 
1.0 1:1.0986123 2:0.6931472 
1.0 1:1.0986123 2:0.6931472 
1.0 1:2.0794415 2:1.3862944 
1.0 1:1.609438 2:1.0986123 
1.0 1:3.4011974 2:2.7725887 
1.0 1:3.0445225 2:2.4849067 
1.0 1:2.0794415 2:1.3862944 
1.0 1:2.4849067 2:1.609438 
1.0 1:1.0986123 2:0.6931472 
1.0 1:1.0986123 2:0.6931472 
1.0 1:2.1972246 2:1.3862944 
1.0 1:1.0986123 2:0.6931472 
1.0 1:2.1972246 2:1.609438 
1.0 1:1.7917595 2:1.0986123 
1.0 1:2.944439 2:1.9459101 
1.0 1:2.8332133 2:2.0794415 
1.0 1:2.0794415 2:1.3862944 
1.0 1:2.6390574 2:1.9459101 
1.0 1:2.1972246 2:1.3862944 
1.0 1:3.295837 2:2.1972246 
1.0 1:1.3862944 2:0.6931472 
1.0 1:3.988984 2:2.8903718 
1.0 1:2.6390574 2:1.7917595 
1.0 1:1.7917595 2:1.0986123 
1.0 1:1.609438 2:1.0986123 
1.0 1:1.0986123 2:0.6931472 
1.0 1:2.9957323 2:1.9459101 
1.0 1:2.8332133 2:1.7917595 
1.0 1:1.0986123 2:0.6931472 
1.0 1:1.0986123 2:0.6931472 
1.0 1:2.0794415 2:1.3862944 
1.0 1:1.7917595 2:1.0986123 
1.0 1:2.3025851 2:1.609438 
1.0 1:2.1972246 2:1.609438 
1.0 1:2.8332133 2:1.9459101 
1.0 1:2.1972246 2:1.3862944 
1.0 1:1.0986123 2:0.6931472 
1.0 1:1.7917595 2:1.0986123 
1.0 1:2.3978953 2:1.609438 
1.0 1:3.988984 2:2.7080503 
1.0 1:3.4339871 2:2.5649493 
1.0 1:2.4849067 2:1.7917595 
1.0 1:1.0986123 2:0.6931472 
1.0 1:1.3862944 2:0.6931472 
1.0 1:4.634729 2:4.0430512 
1.0 1:2.0794415 2:1.3862944 
1.0 1:2.1972246 2:1.3862944 
1.0 1:2.1972246 2:1.3862944 
1.0 1:1.0986123 2:0.6931472 
1.0 1:1.609438 2:1.0986123 
1.0 1:1.3862944 2:0.6931472 
1.0 1:2.3978953 2:1.609438 
1.0 1:2.5649493 2:1.7917595 
1.0 1:2.8332133 2:1.9459101 
1.0 1:1.7917595 2:1.0986123 
1.0 1:3.1354942 2:2.3978953 
1.0 1:1.3862944 2:0.6931472 
1.0 1:3.7612002 2:2.6390574 
1.0 1:1.3862944 2:0.6931472 
1.0 1:1.0986123 2:0.6931472 
1.0 1:1.9459101 2:1.3862944 
1.0 1:2.0794415 2:1.3862944 
1.0 1:1.3862944 2:0.6931472 
1.0 1:1.3862944 2:0.6931472 
1.0 1:1.0986123 2:0.6931472 
1.0 1:1.3862944 2:0.6931472 
1.0 1:1.609438 2:1.0986123 
1.0 1:1.0986123 2:0.6931472 
1.0 1:1.3862944 2:0.6931472 
1.0 1:2.0794415 2:1.3862944 
1.0 1:2.1972246 2:1.3862944 
1.0 1:3.0910425 2:2.3978953 
1.0 1:2.9957323 2:1.9459101 
1.0 1:2.944439 2:1.9459101 
0.7896134754594781 1:1.3862944 2:0.6931472 
1.0 1:3.5553482 2:2.5649493 
1.0 1:1.0986123 2:0.6931472 
1.0 1:1.0986123 2:0.6931472 
1.0 1:3.218876 2:2.0794415 
1.0 1:2.3025851 2:1.3862944 
1.0 1:1.0986123 2:0.6931472 
1.0 1:1.0986123 2:0.6931472 
1.0 1:1.7917595 2:1.0986123 
1.0 1:2.9957323 2:2.1972246 
1.0 1:3.0445225 2:2.3025851 
1.0 1:2.1972246 2:1.3862944 
1.0 1:1.7917595 2:1.0986123 
1.0 1:1.7917595 2:1.0986123 
1.0 1:1.0986123 2:0.6931472 
1.0 1:2.4849067 2:1.9459101 
-1.0 1:1.609438 2:1.0986123 
-1.0 1:2.8332133 2:2.0794415 
-1.0 1:1.9459101 2:1.3862944 
-1.0 1:2.1972246 2:1.609438 
-1.0 1:2.0794415 2:1.3862944 
-1.0 1:2.1972246 2:1.3862944 
-1.0 1:1.0986123 2:0.6931472 
-1.0 1:2.5649493 2:1.7917595 
-1.0 1:1.3862944 2:0.6931472 
-1.0 1:1.609438 2:1.0986123 
-1.0 1:2.0794415 2:1.3862944 
-1.0 1:2.8903718 2:1.7917595 
-1.0 1:2.1972246 2:1.609438 
-1.0 1:1.9459101 2:1.3862944 
-1.0 1:2.3978953 2:1.609438 
-1.0 1:2.6390574 2:1.9459101 
-1.0 1:1.609438 2:1.0986123 
-1.0 1:1.7917595 2:1.0986123 
-1.0 1:1.3862944 2:0.6931472 
-1.0 1:1.7917595 2:1.0986123 
-1.0 1:1.3862944 2:0.6931472 
-1.0 1:1.609438 2:1.0986123 
-1.0 1:1.609438 2:1.0986123 
-1.0 1:2.4849067 2:1.609438 
-1.0 1:1.0986123 2:0.6931472 
-1.0 1:3.0910425 2:2.3025851 
-1.0 1:2.3978953 2:1.609438 
-1.0 1:2.4849067 2:1.7917595 
-1.0 1:2.1972246 2:1.0986123 
-1.0 1:1.0986123 2:0.6931472 
-1.0 1:2.3978953 2:1.609438 
-1.0 1:2.7725887 2:1.9459101 
-1.0 1:3.2580965 2:2.3978953 
-1.0 1:1.0986123 2:0.6931472 
-1.0 1:2.1972246 2:1.3862944 
-1.0 1:1.609438 2:1.0986123 
-1.0 1:2.0794415 2:1.3862944 
-1.0 1:4.356709 2:3.1354942 
-1.0 1:2.1972246 2:1.3862944 
-1.0 1:2.0794415 2:1.3862944 
-1.0 1:2.4849067 2:1.7917595 
-1.0 1:2.3025851 2:1.3862944 
-1.0 1:2.944439 2:2.0794415 
-1.0 1:2.3025851 2:1.609438 
-1.0 1:2.6390574 2:1.9459101 
-1.0 1:2.9957323 2:2.0794415 
-1.0 1:2.1972246 2:1.609438 
-1.0 1:3.0910425 2:2.3025851 
-1.0 1:2.1972246 2:1.609438 
-1.0 1:2.0794415 2:1.0986123 
-0.9388230861603296 1:4.5108595 2:3.3672957 
-1.0 1:2.1972246 2:1.609438 
-1.0 1:1.7917595 2:1.0986123 
-1.0 1:2.6390574 2:1.609438 
-1.0 1:1.609438 2:0.6931472 
-1.0 1:2.3025851 2:1.3862944 
-1.0 1:2.0794415 2:1.3862944 
-1.0 1:1.7917595 2:1.0986123 
-1.0 1:1.609438 2:1.0986123 
-1.0 1:1.3862944 2:0.6931472 
-1.0 1:2.0794415 2:1.3862944 
-1.0 1:2.1972246 2:1.3862944 
-1.0 1:2.4849067 2:1.7917595 
-1.0 1:3.6109178 2:2.3978953 
-1.0 1:2.8332133 2:2.0794415 
-1.0 1:1.9459101 2:1.0986123 
-1.0 1:1.609438 2:1.0986123 
-1.0 1:2.0794415 2:1.3862944 
-1.0 1:2.0794415 2:1.0986123 
-1.0 1:2.3025851 2:1.609438 
-1.0 1:2.1972246 2:1.609438 
-1.0 1:1.0986123 2:0.6931472 
-1.0 1:1.9459101 2:1.0986123 
-1.0 1:1.609438 2:1.0986123 
-1.0 1:2.0794415 2:1.3862944 
-1.0 1:1.0986123 2:0.6931472 
-1.0 1:1.609438 2:1.0986123 
-1.0 1:3.1354942 2:2.0794415 
-1.0 1:2.1972246 2:1.609438 
-1.0 1:2.3978953 2:1.609438 
-1.0 1:2.3978953 2:1.609438 
-1.0 1:3.6888795 2:2.7080503 
-1.0 1:1.3862944 2:0.6931472 
-1.0 1:2.1972246 2:1.3862944 
-1.0 1:1.0986123 2:0.6931472 
-1.0 1:1.9459101 2:1.0986123 
-1.0 1:2.7725887 2:1.9459101 
-1.0 1:1.0986123 2:0.6931472 
-1.0 1:2.1972246 2:1.609438 
-1.0 1:1.0986123 2:0.6931472 
-1.0 1:1.609438 2:1.0986123 
-1.0 1:2.7080503 2:1.9459101 
-1.0 1:1.3862944 2:0.6931472 
-1.0 1:3.295837 2:2.0794415 
-1.0 1:1.609438 2:1.0986123 
-1.0 1:2.6390574 2:1.9459101 
-1.0 1:2.0794415 2:1.0986123 
-1.0 1:1.0986123 2:0.6931472 
-1.0 1:1.3862944 2:0.6931472 
-1.0 1:1.9459101 2:1.3862944 
-1.0 1:1.609438 2:0.6931472 
-1.0 1:2.3025851 2:1.609438 
-1.0 1:2.1972246 2:1.609438 
-1.0 1:2.3025851 2:1.609438 
-1.0 1:1.9459101 2:1.3862944 
-1.0 1:2.0794415 2:1.3862944 
-1.0 1:1.609438 2:1.0986123 
-1.0 1:2.3025851 2:1.609438 
-1.0 1:1.7917595 2:1.0986123 
-1.0 1:1.7917595 2:1.0986123 
-1.0 1:3.465736 2:2.5649493 
-1.0 1:2.4849067 2:1.609438 
-1.0 1:1.9459101 2:1.3862944 
-1.0 1:2.0794415 2:1.3862944 
-1.0 1:2.5649493 2:1.7917595 
-1.0 1:1.9459101 2:1.3862944 
-1.0 1:2.7080503 2:1.7917595 
-1.0 1:2.3025851 2:1.609438 
-1.0 1:1.609438 2:1.0986123 
-1.0 1:1.9459101 2:1.3862944 
-1.0 1:1.0986123 2:0.6931472 
-1.0 1:1.609438 2:1.0986123 
-1.0 1:1.609438 2:1.0986123 
-1.0 1:2.6390574 2:1.7917595 
-1.0 1:2.944439 2:2.1972246 
-1.0 1:1.0986123 2:0.6931472 
-1.0 1:3.3672957 2:2.3978953 
-1.0 1:1.609438 2:1.0986123 
-1.0 1:2.4849067 2:1.7917595 
-1.0 1:1.0986123 2:0.6931472 
-1.0 1:2.7725887 2:1.9459101 
-1.0 1:4.394449 2:3.2580965 
-1.0 1:2.6390574 2:1.9459101 
-1.0 1:2.6390574 2:1.7917595 
-1.0 1:1.609438 2:1.0986123 
-1.0 1:1.0986123 2:0.6931472 
-1.0 1:1.0986123 2:0.6931472 
-1.0 1:1.0986123 2:0.6931472 
-1.0 1:1.9459101 2:1.0986123 
-1.0 1:1.609438 2:1.0986123 
-1.0 1:2.1972246 2:1.609438 
-1.0 1:3.3672957 2:2.1972246 
-1.0 1:1.609438 2:1.0986123 
-1.0 1:2.1972246 2:1.609438 
-1.0 1:1.9459101 2:1.3862944 
-1.0 1:2.0794415 2:1.3862944 
-1.0 1:2.5649493 2:1.7917595 
-1.0 1:2.9957323 2:2.1972246 
-1.0 1:1.0986123 2:0.6931472 
-1.0 1:1.609438 2:1.0986123 
-1.0 1:2.6390574 2:1.7917595 
-1.0 1:1.9459101 2:1.0986123 
-1.0 1:2.0794415 2:1.3862944 
-1.0 1:2.7080503 2:1.7917595 
-1.0 1:2.5649493 2:1.7917595 
-1.0 1:1.609438 2:1.0986123 
-1.0 1:1.0986123 2:0.6931472 
-1.0 1:2.3978953 2:1.609438 
-1.0 1:2.0794415 2:1.3862944 
-1.0 1:1.0986123 2:0.6931472 
-1.0 1:2.6390574 2:1.7917595 
-1.0 1:1.0986123 2:0.6931472 
-1.0 1:2.8903718 2:2.0794415 
-1.0 1:2.4849067 2:1.7917595 
-1.0 1:2.1972246 2:1.609438 
-1.0 1:1.7917595 2:1.0986123 
-1.0 1:2.5649493 2:1.7917595 
-1.0 1:2.8903718 2:1.9459101 
-1.0 1:1.7917595 2:1.0986123 
-1.0 1:3.0910425 2:2.1972246 
-1.0 1:1.9459101 2:1.3862944 
-1.0 1:2.0794415 2:1.3862944 
-1.0 1:1.9459101 2:1.0986123 
-1.0 1:3.3322046 2:2.0794415 
-1.0 1:1.0986123 2:0.6931472 
-1.0 1:2.0794415 2:1.3862944 
-1.0 1:1.609438 2:1.0986123 
-1.0 1:4.304065 2:3.0910425 
-1.0 1:1.9459101 2:1.3862944 
-1.0 1:2.3025851 2:1.609438 
-1.0 1:2.1972246 2:1.609438 
-1.0 1:3.5553482 2:2.6390574 
-1.0 1:2.4849067 2:1.7917595 
-1.0 1:2.1972246 2:1.3862944 
-1.0 1:1.9459101 2:1.3862944 
-1.0 1:1.7917595 2:1.0986123 
-1.0 1:1.9459101 2:1.3862944 
-1.0 1:1.0986123 2:0.6931472 
-1.0 1:3.988984 2:2.6390574 
-1.0 1:1.0986123 2:0.6931472 
-1.0 1:2.1972246 2:1.609438 
-1.0 1:1.609438 2:0.6931472 
-1.0 1:1.609438 2:1.0986123 
-1.0 1:3.465736 2:2.4849067 
-1.0 1:1.3862944 2:0.6931472 
-1.0 1:1.3862944 2:0.6931472 
-1.0 1:2.944439 2:1.7917595 
-1.0 1:1.3862944 2:0.6931472 
-1.0 1:1.609438 2:0.6931472 
-1.0 1:1.609438 2:1.0986123 
-1.0 1:1.9459101 2:1.3862944 
-1.0 1:2.0794415 2:1.3862944 
-1.0 1:1.0986123 2:0.6931472 
-1.0 1:1.9459101 2:1.3862944 
-1.0 1:2.1972246 2:1.609438 
-1.0 1:2.6390574 2:1.9459101 
-1.0 1:1.9459101 2:1.3862944 
-1.0 1:2.0794415 2:1.0986123 
-1.0 1:3.3322046 2:2.4849067 
-1.0 1:1.3862944 2:0.6931472 
-1.0 1:4.0775375 2:2.944439 
-1.0 1:2.8332133 2:2.0794415 
-1.0 1:2.5649493 2:1.7917595 
-1.0 1:2.7080503 2:1.9459101 
-1.0 1:1.0986123 2:0.6931472 
-1.0 1:3.295837 2:2.3978953 
-1.0 1:1.0986123 2:0.6931472 
-1.0 1:2.5649493 2:1.7917595 
-1.0 1:2.944439 2:2.0794415 
-1.0 1:3.0910425 2:2.1972246 
-1.0 1:2.6390574 2:1.9459101 
-1.0 1:2.3025851 2:1.3862944 
-1.0 1:2.6390574 2:1.9459101 
-1.0 1:2.1972246 2:1.609438 
-1.0 1:1.7917595 2:1.0986123 
-1.0 1:1.0986123 2:0.6931472 
-1.0 1:2.7080503 2:1.9459101 
-1.0 1:2.1972246 2:1.609438 
-1.0 1:1.3862944 2:0.6931472 
-1.0 1:1.0986123 2:0.6931472 
-1.0 1:1.9459101 2:1.3862944 
-1.0 1:2.3025851 2:1.609438 
-1.0 1:1.7917595 2:1.0986123 
-1.0 1:1.609438 2:1.0986123 
-1.0 1:2.5649493 2:1.7917595 
-1.0 1:2.7725887 2:1.7917595 
-1.0 1:3.1354942 2:2.0794415 
-1.0 1:3.6109178 2:2.3025851 
-1.0 1:2.1972246 2:1.609438 
-1.0 1:2.8332133 2:2.0794415 
-1.0 1:1.9459101 2:1.3862944 
-1.0 1:1.9459101 2:1.3862944 
-1.0 1:1.7917595 2:1.0986123 
-1.0 1:1.609438 2:1.0986123 
-1.0 1:2.3025851 2:1.609438 
-1.0 1:2.4849067 2:1.7917595 
-1.0 1:2.0794415 2:1.3862944 
-1.0 1:1.9459101 2:1.3862944 
-1.0 1:1.0986123 2:0.6931472 
-1.0 1:3.0445225 2:2.1972246 
-1.0 1:2.4849067 2:1.7917595 
-1.0 1:1.609438 2:1.0986123 
-1.0 1:2.7080503 2:1.9459101 
-1.0 1:1.609438 2:1.0986123 
-1.0 1:2.0794415 2:1.0986123 
-1.0 1:1.609438 2:1.0986123 
-1.0 1:2.1972246 2:1.609438 
-1.0 1:1.609438 2:1.0986123 
-1.0 1:1.0986123 2:0.6931472 
-1.0 1:1.609438 2:1.0986123 
-1.0 1:2.9957323 2:2.0794415 
-1.0 1:2.1972246 2:1.609438 
-1.0 1:1.9459101 2:1.3862944 
-1.0 1:2.944439 2:2.1972246 
-1.0 1:2.4849067 2:1.7917595 
-1.0 1:1.609438 2:1.0986123 
-1.0 1:2.7725887 2:1.7917595 
-1.0 1:2.0794415 2:1.3862944 
-1.0 1:3.3322046 2:2.0794415 
-0.5409640880551572 1:2.3978953 2:1.7917595 
-1.0 1:1.3862944 2:0.6931472 
-1.0 1:1.9459101 2:1.3862944 
-1.0 1:2.3025851 2:1.609438 
-1.0 1:4.394449 2:3.218876 
-1.0 1:1.9459101 2:1.3862944 
-1.0 1:1.9459101 2:1.3862944 
-1.0 1:2.3978953 2:1.7917595 
-1.0 1:1.609438 2:1.0986123 
-1.0 1:1.609438 2:1.0986123 
-1.0 1:1.7917595 2:1.0986123 
-1.0 1:2.4849067 2:1.7917595 
-1.0 1:1.0986123 2:0.6931472 
-1.0 1:1.609438 2:1.0986123 
-1.0 1:3.0910425 2:2.3025851 
-1.0 1:2.1972246 2:1.609438 
-1.0 1:2.0794415 2:1.3862944 
-1.0 1:1.3862944 2:0.6931472 
-1.0 1:2.0794415 2:1.3862944 
-1.0 1:2.4849067 2:1.7917595 
-1.0 1:2.4849067 2:1.7917595 
-1.0 1:2.3978953 2:1.7917595 
-1.0 1:2.3025851 2:1.609438 
-1.0 1:1.9459101 2:1.3862944 
-1.0 1:2.3025851 2:1.3862944 
-1.0 1:1.7917595 2:1.0986123 
-1.0 1:2.5649493 2:1.7917595 
-1.0 1:2.1972246 2:1.609438 
-1.0 1:1.609438 2:1.0986123 
-1.0 1:1.0986123 2:0.6931472 
-1.0 1:2.4849067 2:1.7917595 
-1.0 1:1.0986123 2:0.6931472 
-1.0 1:2.3978953 2:1.7917595 
-1.0 1:1.7917595 2:1.0986123 
-1.0 1:3.3672957 2:2.3978953 
-1.0 1:2.3025851 2:1.609438 
-1.0 1:2.1972246 2:1.609438 
-1.0 1:4.304065 2:3.1354942 
-1.0 1:1.609438 2:1.0986123 
-1.0 1:1.609438 2:1.0986123 
-1.0 1:1.9459101 2:1.3862944 
-1.0 1:1.3862944 2:0.6931472 
-1.0 1:1.0986123 2:0.6931472 
-1.0 1:2.3978953 2:1.7917595 
-1.0 1:1.0986123 2:0.6931472 
-1.0 1:1.9459101 2:1.3862944 
-1.0 1:1.9459101 2:1.3862944 
-1.0 1:1.9459101 2:1.3862944 
-1.0 1:1.0986123 2:0.6931472 
-1.0 1:3.2580965 2:2.3978953 
-1.0 1:1.0986123 2:0.6931472 
-1.0 1:2.7080503 2:1.9459101 
-1.0 1:2.1972246 2:1.609438 
-1.0 1:1.0986123 2:0.6931472 
-1.0 1:1.0986123 2:0.6931472 
-1.0 1:2.8332133 2:2.0794415 
-1.0 1:1.0986123 2:0.6931472 
-1.0 1:2.0794415 2:1.3862944 
-1.0 1:1.609438 2:1.0986123 
-1.0 1:1.609438 2:1.0986123 
-1.0 1:1.3862944 2:0.6931472 
-1.0 1:3.1780539 2:2.3025851 
-1.0 1:2.1972246 2:1.609438 
-1.0 1:1.0986123 2:0.6931472 
-1.0 1:2.1972246 2:1.609438 
-1.0 1:1.0986123 2:0.6931472 
-1.0 1:2.1972246 2:1.609438 
-1.0 1:1.609438 2:0.6931472 
-1.0 1:1.609438 2:1.0986123 
-1.0 1:2.3978953 2:1.7917595 
-1.0 1:1.609438 2:1.0986123 
-1.0 1:2.8332133 2:1.9459101 
-1.0 1:1.609438 2:1.0986123 
-1.0 1:2.6390574 2:1.9459101 
-1.0 1:3.218876 2:2.0794415 
-1.0 1:2.4849067 2:1.7917595 
-1.0 1:2.4849067 2:1.7917595 
-1.0 1:2.3978953 2:1.7917595 
-1.0 1:1.0986123 2:0.6931472 
-1.0 1:2.1972246 2:1.609438 
-1.0 1:1.9459101 2:1.3862944 
-1.0 1:1.3862944 2:0.6931472 
-1.0 1:2.8332133 2:2.0794415 
-1.0 1:1.0986123 2:0.6931472 
-1.0 1:3.2580965 2:2.3978953 
-1.0 1:2.3025851 2:1.609438 
-1.0 1:1.7917595 2:1.0986123 
-1.0 1:1.609438 2:1.0986123 
-1.0 1:1.0986123 2:0.6931472 
-1.0 1:2.3978953 2:1.7917595 
-1.0 1:1.609438 2:1.0986123 
-1.0 1:1.9459101 2:1.3862944 
-1.0 1:2.9957323 2:2.0794415 
-1.0 1:1.0986123 2:0.6931472 
-1.0 1:1.609438 2:1.0986123 
-1.0 1:1.3862944 2:0.6931472 
-1.0 1:1.9459101 2:1.3862944 
-1.0 1:3.3322046 2:2.3978953 
-1.0 1:2.9957323 2:2.1972246 
-1.0 1:1.9459101 2:1.3862944 
-1.0 1:1.0986123 2:0.6931472 
-1.0 1:1.609438 2:1.0986123 
-1.0 1:2.944439 2:2.1972246 
-1.0 1:1.609438 2:1.0986123 
-1.0 1:2.3978953 2:1.7917595 
-1.0 1:2.3978953 2:1.7917595 
-1.0 1:2.9957323 2:2.1972246 
-1.0 1:1.0986123 2:0.6931472 
-1.0 1:1.609438 2:0.6931472 
-1.0 1:2.9957323 2:2.1972246 
-1.0 1:1.609438 2:1.0986123 
-1.0 1:1.609438 2:1.0986123 
-1.0 1:1.609438 2:1.0986123 
-1.0 1:2.5649493 2:1.7917595 
-1.0 1:1.609438 2:1.0986123 
-1.0 1:3.4011974 2:2.4849067 
-1.0 1:2.6390574 2:1.9459101 
-1.0 1:1.9459101 2:1.3862944 
-1.0 1:1.9459101 2:1.3862944 
-1.0 1:1.9459101 2:1.0986123 
-1.0 1:1.7917595 2:1.0986123 
-1.0 1:2.1972246 2:1.609438 
-1.0 1:2.1972246 2:1.609438 
-1.0 1:1.0986123 2:0.6931472 
-1.0 1:2.3978953 2:1.609438 
-1.0 1:1.3862944 2:0.6931472 
-1.0 1:2.1972246 2:1.609438 
-1.0 1:3.0445225 2:2.1972246 
-1.0 1:1.0986123 2:0.6931472 
-1.0 1:2.3978953 2:1.7917595 
-1.0 1:3.1354942 2:2.0794415 
-1.0 1:1.9459101 2:1.3862944 
-1.0 1:3.3322046 2:2.4849067 
-1.0 1:4.0253515 2:2.9957323 
-1.0 1:1.9459101 2:1.3862944 
-1.0 1:2.0794415 2:1.3862944 
-1.0 1:2.9957323 2:1.9459101 
-1.0 1:1.609438 2:1.0986123 
-1.0 1:1.3862944 2:0.6931472 
-1.0 1:1.7917595 2:1.0986123 
-1.0 1:1.7917595 2:1.0986123 
-1.0 1:2.3025851 2:1.609438 
-1.0 1:2.3978953 2:1.7917595 
-1.0 1:1.9459101 2:1.3862944 
-1.0 1:1.0986123 2:0.6931472 
-1.0 1:2.1972246 2:1.609438 
-1.0 1:2.7080503 2:1.9459101 
-1.0 1:2.944439 2:2.1972246 
-1.0 1:2.3978953 2:1.609438 
-1.0 1:1.0986123 2:0.6931472 
-1.0 1:1.0986123 2:0.6931472 
-1.0 1:1.9459101 2:1.0986123 
-1.0 1:1.0986123 2:0.6931472 
-1.0 1:2.944439 2:2.0794415 
-1.0 1:1.0986123 2:0.6931472 
-1.0 1:2.3025851 2:1.609438 
-1.0 1:2.3978953 2:1.7917595 
-1.0 1:1.9459101 2:1.3862944 
-1.0 1:3.0910425 2:2.3025851 
-1.0 1:2.6390574 2:1.9459101 
-1.0 1:1.9459101 2:1.3862944 
-1.0 1:2.3978953 2:1.7917595 
-1.0 1:1.7917595 2:1.0986123 
-1.0 1:2.3025851 2:1.609438 
-1.0 1:1.609438 2:0.6931472 
-1.0 1:1.7917595 2:1.0986123 
-1.0 1:1.609438 2:1.0986123 
-1.0 1:1.3862944 2:0.6931472 
-1.0 1:1.9459101 2:1.3862944 
-1.0 1:3.3672957 2:2.3978953 
-1.0 1:1.9459101 2:1.3862944 
-1.0 1:1.609438 2:1.0986123 
-0.7121437659664803 1:2.3978953 2:1.7917595 
-1.0 1:2.3978953 2:1.3862944 
-1.0 1:1.609438 2:1.0986123 
-1.0 1:3.0445225 2:2.1972246 
