svm_type c_svc
kernel_type linear
nr_class 2
total_sv 10
rho -1.0000000008075682
label 1 -1
nr_sv 5 5
SV
0.16273770321261952 1:0.6931472 2:0.0 
1.0 1:0.6931472 2:0.0 
1.0 1:0.6931472 2:0.0 
1.0 1:0.6931472 2:0.0 
1.0 1:0.6931472 2:0.0 
-0.16273770321261952 1:0.6931472 2:0.6931472 
-1.0 1:0.6931472 2:0.6931472 
-1.0 1:0.6931472 2:0.6931472 
-1.0 1:0.6931472 2:0.6931472 
-1.0 1:0.6931472 2:0.6931472 
