svm_type c_svc
kernel_type linear
nr_class 2
total_sv 585
rho 1.5842330000186446
label 1 -1
nr_sv 292 293
SV
1.0 1:3.1354942 2:1.9459101 
1.0 1:1.0986123 2:0.6931472 
1.0 1:2.7725887 2:1.9459101 
1.0 1:2.3978953 2:1.609438 
1.0 1:3.8501475 2:2.8903718 
1.0 1:2.8332133 2:1.9459101 
1.0 1:2.0794415 2:1.0986123 
1.0 1:1.7917595 2:1.0986123 
1.0 1:1.9459101 2:1.3862944 
1.0 1:2.8903718 2:2.0794415 
1.0 1:3.1354942 2:2.5649493 
1.0 1:2.7080503 2:1.7917595 
1.0 1:2.5649493 2:1.7917595 
1.0 1:3.9702919 2:2.6390574 
1.0 1:2.944439 2:2.0794415 
1.0 1:2.3025851 2:1.609438 
1.0 1:2.7080503 2:1.7917595 
1.0 1:1.0986123 2:0.6931472 
1.0 1:2.8903718 2:1.9459101 
1.0 1:1.7917595 2:1.0986123 
1.0 1:2.9957323 2:2.0794415 
1.0 1:1.3862944 2:0.6931472 
1.0 1:1.3862944 2:0.6931472 
1.0 1:2.6390574 2:1.9459101 
1.0 1:1.9459101 2:1.0986123 
1.0 1:2.0794415 2:1.3862944 
1.0 1:2.7080503 2:1.609438 
1.0 1:1.0986123 2:0.6931472 
1.0 1:4.158883 2:3.0910425 
1.0 1:1.9459101 2:1.0986123 
1.0 1:2.944439 2:1.7917595 
1.0 1:3.6109178 2:2.4849067 
1.0 1:1.3862944 2:0.6931472 
1.0 1:1.0986123 2:0.6931472 
1.0 1:1.7917595 2:1.0986123 
1.0 1:1.609438 2:1.0986123 
1.0 1:2.4849067 2:1.609438 
1.0 1:1.9459101 2:1.0986123 
1.0 1:1.0986123 2:0.6931472 
1.0 1:2.5649493 2:1.609438 
1.0 1:3.4965076 2:2.6390574 
1.0 1:1.0986123 2:0.6931472 
1.0 1:1.609438 2:1.0986123 
1.0 1:2.5649493 2:1.609438 
1.0 1:4.9416423 2:4.248495 
1.0 1:1.0986123 2:0.6931472 
1.0 1:2.3025851 2:1.609438 
1.0 1:1.7917595 2:1.0986123 
1.0 1:1.0986123 2:0.6931472 
1.0 1:1.3862944 2:0.6931472 
1.0 1:1.0986123 2:0.6931472 
1.0 1:1.0986123 2:0.6931472 
1.0 1:1.0986123 2:0.6931472 
1.0 1:2.8903718 2:1.7917595 
1.0 1:3.1354942 2:2.3978953 
1.0 1:1.0986123 2:0.6931472 
1.0 1:1.9459101 2:1.0986123 
1.0 1:1.0986123 2:0.6931472 
1.0 1:1.3862944 2:0.6931472 
1.0 1:2.1972246 2:1.3862944 
1.0 1:1.0986123 2:0.6931472 
1.0 1:1.3862944 2:0.6931472 
1.0 1:1.3862944 2:0.6931472 
1.0 1:2.944439 2:1.7917595 
1.0 1:1.0986123 2:0.6931472 
1.0 1:1.3862944 2:0.6931472 
1.0 1:2.3025851 2:1.3862944 
1.0 1:3.295837 2:2.3978953 
1.0 1:1.3862944 2:0.6931472 
1.0 1:2.3025851 2:1.3862944 
1.0 1:3.0910425 2:2.1972246 
1.0 1:2.6390574 2:1.609438 
1.0 1:2.1972246 2:1.3862944 
1.0 1:1.3862944 2:0.6931472 
1.0 1:1.9459101 2:1.3862944 
1.0 1:3.637586 2:2.5649493 
1.0 1:2.6390574 2:1.7917595 
1.0 1:1.0986123 2:0.6931472 
1.0 1:1.3862944 2:0.6931472 
1.0 1:2.8903718 2:2.3025851 
1.0 1:3.2580965 2:2.0794415 
1.0 1:3.218876 2:2.1972246 
1.0 1:2.7080503 2:1.609438 
1.0 1:2.8903718 2:2.0794415 
1.0 1:2.3025851 2:1.609438 
1.0 1:1.3862944 2:0.6931472 
1.0 1:1.3862944 2:0.6931472 
1.0 1:3.3322046 2:2.4849067 
1.0 1:2.944439 2:2.1972246 
1.0 1:2.8903718 2:1.9459101 
1.0 1:2.1972246 2:1.609438 
1.0 1:1.0986123 2:0.6931472 
1.0 1:1.9459101 2:1.0986123 
1.0 1:2.6390574 2:1.7917595 
1.0 1:2.3025851 2:1.609438 
1.0 1:3.871201 2:2.6390574 
1.0 1:3.2580965 2:2.3025851 
1.0 1:1.9459101 2:1.0986123 
1.0 1:2.4849067 2:1.609438 
1.0 1:1.3862944 2:0.6931472 
1.0 1:5.0875964 2:4.1743875 
1.0 1:2.9957323 2:2.1972246 
1.0 1:4.0073333 2:2.8332133 
1.0 1:3.3322046 2:2.5649493 
1.0 1:2.3025851 2:1.609438 
1.0 1:3.5553482 2:2.7725887 
1.0 1:2.4849067 2:1.609438 
1.0 1:2.6390574 2:1.9459101 
1.0 1:2.3978953 2:1.3862944 
1.0 1:1.3862944 2:0.6931472 
1.0 1:2.4849067 2:1.609438 
1.0 1:1.0986123 2:0.6931472 
1.0 1:1.3862944 2:0.6931472 
1.0 1:2.3025851 2:1.7917595 
1.0 1:3.1780539 2:2.4849067 
1.0 1:1.609438 2:1.0986123 
1.0 1:1.0986123 2:0.6931472 
1.0 1:1.0986123 2:0.6931472 
1.0 1:3.6109178 2:2.7080503 
1.0 1:2.0794415 2:1.3862944 
1.0 1:1.9459101 2:1.0986123 
1.0 1:2.0794415 2:1.0986123 
1.0 1:1.9459101 2:1.3862944 
1.0 1:1.9459101 2:1.0986123 
1.0 1:2.5649493 2:1.609438 
1.0 1:2.4849067 2:1.7917595 
1.0 1:4.0430512 2:2.944439 
1.0 1:1.0986123 2:0.6931472 
1.0 1:1.3862944 2:0.6931472 
1.0 1:2.5649493 2:1.7917595 
1.0 1:1.3862944 2:0.6931472 
1.0 1:2.1972246 2:1.3862944 
1.0 1:2.6390574 2:1.609438 
1.0 1:3.218876 2:2.3025851 
1.0 1:1.3862944 2:0.6931472 
1.0 1:1.0986123 2:0.6931472 
1.0 1:3.218876 2:2.0794415 
1.0 1:1.0986123 2:0.6931472 
1.0 1:2.9957323 2:1.9459101 
1.0 1:1.3862944 2:0.6931472 
1.0 1:3.465736 2:2.4849067 
1.0 1:2.3978953 2:1.3862944 
1.0 1:1.3862944 2:0.6931472 
1.0 1:2.4849067 2:1.7917595 
1.0 1:1.7917595 2:1.0986123 
1.0 1:2.7725887 2:1.9459101 
1.0 1:1.3862944 2:0.6931472 
1.0 1:3.0910425 2:2.0794415 
1.0 1:3.1354942 2:2.0794415 
1.0 1:1.0986123 2:0.6931472 
1.0 1:2.5649493 2:1.609438 
1.0 1:3.6635616 2:3.0910425 
1.0 1:3.4965076 2:2.5649493 
1.0 1:2.0794415 2:1.0986123 
1.0 1:1.3862944 2:0.6931472 
1.0 1:3.0445225 2:2.0794415 
1.0 1:1.0986123 2:0.6931472 
1.0 1:2.9957323 2:2.0794415 
1.0 1:3.0910425 2:2.0794415 
1.0 1:2.9957323 2:1.9459101 
1.0 1:2.6390574 2:1.7917595 
1.0 1:1.0986123 2:0.6931472 
1.0 1:1.7917595 2:1.0986123 
1.0 1:2.5649493 2:1.609438 
1.0 1:3.1354942 2:2.1972246 
1.0 1:1.0986123 2:0.6931472 
1.0 1:2.0794415 2:1.0986123 
1.0 1:2.7080503 2:1.609438 
1.0 1:1.3862944 2:0.6931472 
1.0 1:1.0986123 2:0.6931472 
1.0 1:1.3862944 2:0.6931472 
1.0 1:3.4011974 2:2.3978953 
1.0 1:3.295837 2:2.1972246 
1.0 1:3.1780539 2:2.1972246 
1.0 1:2.8903718 2:1.7917595 
1.0 1:2.4849067 2:1.9459101 
1.0 1:1.0986123 2:0.6931472 
1.0 1:2.7725887 2:1.7917595 
1.0 1:2.944439 2:1.9459101 
1.0 1:1.0986123 2:0.6931472 
1.0 1:2.9957323 2:1.9459101 
1.0 1:1.0986123 2:0.6931472 
1.0 1:1.3862944 2:0.6931472 
1.0 1:3.295837 2:2.3025851 
1.0 1:1.0986123 2:0.6931472 
1.0 1:2.7080503 2:1.9459101 
1.0 1:2.0794415 2:1.0986123 
1.0 1:2.944439 2:2.3025851 
1.0 1:3.4965076 2:2.7080503 
1.0 1:3.465736 2:2.1972246 
1.0 1:2.3978953 2:1.609438 
1.0 1:1.0986123 2:0.6931472 
1.0 1:2.944439 2:1.7917595 
1.0 1:1.0986123 2:0.6931472 
1.0 1:1.9459101 2:1.0986123 
1.0 1:2.6390574 2:1.609438 
1.0 1:3.295837 2:2.3025851 
1.0 1:3.8286414 2:2.7080503 
1.0 1:2.9957323 2:2.3025851 
1.0 1:1.3862944 2:0.6931472 
1.0 1:1.3862944 2:0.6931472 
1.0 1:1.0986123 2:0.6931472 
1.0 1:2.6390574 2:1.7917595 
1.0 1:3.3322046 2:2.0794415 
1.0 1:2.4849067 2:1.9459101 
1.0 1:2.5649493 2:1.7917595 
1.0 1:1.9459101 2:1.0986123 
1.0 1:2.6390574 2:1.7917595 
1.0 1:1.3862944 2:0.6931472 
1.0 1:1.0986123 2:0.6931472 
1.0 1:4.4426513 2:3.2580965 
1.0 1:3.465736 2:2.3978953 
1.0 1:2.6390574 2:1.609438 
1.0 1:2.7080503 2:1.7917595 
1.0 1:1.3862944 2:0.6931472 
1.0 1:3.218876 2:2.3978953 
1.0 1:3.218876 2:2.3025851 
1.0 1:1.9459101 2:1.0986123 
1.0 1:1.0986123 2:0.6931472 
1.0 1:1.3862944 2:0.6931472 
1.0 1:1.0986123 2:0.6931472 
1.0 1:2.0794415 2:1.0986123 
1.0 1:1.0986123 2:0.6931472 
0.9741143152063834 1:0.6931472 2:0.0 
1.0 1:0.6931472 2:0.0 
1.0 1:2.3025851 2:1.3862944 
1.0 1:0.6931472 2:0.0 
1.0 1:2.3025851 2:1.3862944 
1.0 1:1.3862944 2:0.6931472 
1.0 1:0.6931472 2:0.0 
1.0 1:0.6931472 2:0.0 
1.0 1:0.6931472 2:0.0 
1.0 1:2.1972246 2:1.609438 
1.0 1:0.6931472 2:0.0 
1.0 1:2.1972246 2:1.609438 
1.0 1:3.4965076 2:2.6390574 
1.0 1:2.6390574 2:1.609438 
0.20868777243208025 1:2.7725887 2:1.609438 
1.0 1:0.6931472 2:0.0 
1.0 1:0.6931472 2:0.0 
1.0 1:3.1354942 2:2.1972246 
1.0 1:1.3862944 2:0.6931472 
1.0 1:1.0986123 2:0.6931472 
1.0 1:2.3025851 2:1.3862944 
1.0 1:1.3862944 2:0.6931472 
1.0 1:3.1780539 2:1.9459101 
1.0 1:0.6931472 2:0.0 
1.0 1:2.0794415 2:1.3862944 
1.0 1:1.3862944 2:0.6931472 
1.0 1:3.295837 2:2.5649493 
1.0 1:0.6931472 2:0.0 
1.0 1:2.0794415 2:1.3862944 
1.0 1:2.3025851 2:1.3862944 
1.0 1:1.3862944 2:0.6931472 
1.0 1:2.4849067 2:1.609438 
1.0 1:3.2580965 2:2.0794415 
1.0 1:0.6931472 2:0.0 
1.0 1:1.0986123 2:0.6931472 
1.0 1:0.6931472 2:0.0 
1.0 1:1.3862944 2:0.6931472 
1.0 1:2.3025851 2:1.609438 
1.0 1:2.1972246 2:1.3862944 
1.0 1:1.0986123 2:0.6931472 
1.0 1:1.0986123 2:0.6931472 
1.0 1:2.5649493 2:1.609438 
1.0 1:2.8332133 2:1.9459101 
1.0 1:0.6931472 2:0.0 
1.0 1:1.0986123 2:0.6931472 
1.0 1:0.6931472 2:0.0 
1.0 1:1.0986123 2:0.6931472 
1.0 1:1.9459101 2:1.0986123 
1.0 1:2.0794415 2:1.0986123 
1.0 1:1.0986123 2:0.6931472 
1.0 1:1.0986123 2:0.6931472 
1.0 1:0.6931472 2:0.0 
1.0 1:1.609438 2:1.0986123 
1.0 1:0.6931472 2:0.0 
1.0 1:0.6931472 2:0.0 
1.0 1:1.0986123 2:0.6931472 
1.0 1:2.4849067 2:1.7917595 
1.0 1:1.0986123 2:0.6931472 
1.0 1:1.7917595 2:1.0986123 
1.0 1:1.7917595 2:1.0986123 
1.0 1:1.9459101 2:1.3862944 
1.0 1:1.9459101 2:1.0986123 
1.0 1:1.3862944 2:0.6931472 
1.0 1:3.218876 2:2.3025851 
1.0 1:4.317488 2:3.3322046 
1.0 1:2.0794415 2:1.0986123 
1.0 1:0.6931472 2:0.0 
0.8484061897049391 1:0.6931472 2:0.0 
1.0 1:2.8903718 2:1.7917595 
-1.0 1:1.7917595 2:1.0986123 
-0.01931526716416849 1:2.9957323 2:2.1972246 
-1.0 1:2.5649493 2:1.7917595 
-1.0 1:1.0986123 2:0.6931472 
-1.0 1:1.609438 2:1.0986123 
-1.0 1:2.0794415 2:1.0986123 
-1.0 1:3.3672957 2:2.3978953 
-1.0 1:1.0986123 2:0.6931472 
-1.0 1:1.0986123 2:0.6931472 
-1.0 1:1.9459101 2:1.0986123 
-1.0 1:2.7080503 2:1.9459101 
-1.0 1:2.7080503 2:1.9459101 
-1.0 1:1.609438 2:1.0986123 
-1.0 1:1.3862944 2:0.6931472 
-1.0 1:1.7917595 2:1.0986123 
-1.0 1:3.4965076 2:2.4849067 
-1.0 1:1.0986123 2:0.6931472 
-1.0 1:1.0986123 2:0.6931472 
-1.0 1:1.609438 2:1.0986123 
-1.0 1:3.3322046 2:2.3978953 
-1.0 1:2.6390574 2:1.609438 
-1.0 1:1.609438 2:1.0986123 
-1.0 1:3.1354942 2:2.0794415 
-1.0 1:1.3862944 2:0.6931472 
-1.0 1:3.218876 2:2.1972246 
-1.0 1:1.609438 2:1.0986123 
-1.0 1:2.5649493 2:1.7917595 
-1.0 1:2.6390574 2:1.609438 
-1.0 1:3.1780539 2:2.3025851 
-1.0 1:3.2580965 2:2.3978953 
-1.0 1:2.3025851 2:1.0986123 
-1.0 1:2.0794415 2:1.3862944 
-1.0 1:1.609438 2:1.0986123 
-1.0 1:2.6390574 2:1.609438 
-1.0 1:3.3672957 2:2.3978953 
-1.0 1:1.0986123 2:0.6931472 
-1.0 1:1.9459101 2:1.0986123 
-1.0 1:2.1972246 2:1.3862944 
-1.0 1:2.5649493 2:1.7917595 
-1.0 1:1.609438 2:1.0986123 
-1.0 1:1.0986123 2:0.6931472 
-1.0 1:1.609438 2:1.0986123 
-1.0 1:3.1354942 2:2.3025851 
-1.0 1:2.0794415 2:1.3862944 
-1.0 1:1.0986123 2:0.6931472 
-1.0 1:1.3862944 2:0.6931472 
-1.0 1:1.3862944 2:0.6931472 
-1.0 1:1.0986123 2:0.6931472 
-1.0 1:1.3862944 2:0.6931472 
-1.0 1:1.9459101 2:1.0986123 
-1.0 1:1.0986123 2:0.6931472 
-1.0 1:1.0986123 2:0.6931472 
-1.0 1:2.9957323 2:1.7917595 
-1.0 1:2.7725887 2:1.7917595 
-1.0 1:2.3025851 2:1.609438 
-1.0 1:2.7725887 2:1.9459101 
-1.0 1:2.0794415 2:1.3862944 
-1.0 1:1.3862944 2:0.6931472 
-1.0 1:2.8903718 2:1.9459101 
-1.0 1:2.0794415 2:1.3862944 
-1.0 1:1.7917595 2:1.0986123 
-1.0 1:2.944439 2:2.0794415 
-1.0 1:3.6109178 2:2.3978953 
-1.0 1:1.0986123 2:0.6931472 
-1.0 1:2.3978953 2:1.609438 
-1.0 1:3.1780539 2:2.1972246 
-1.0 1:1.0986123 2:0.6931472 
-1.0 1:1.0986123 2:0.6931472 
-1.0 1:2.0794415 2:1.3862944 
-1.0 1:2.3978953 2:1.609438 
-1.0 1:1.609438 2:1.0986123 
-1.0 1:1.0986123 2:0.6931472 
-1.0 1:2.4849067 2:1.7917595 
-1.0 1:2.1972246 2:1.3862944 
-1.0 1:1.9459101 2:1.0986123 
-1.0 1:2.7080503 2:1.9459101 
-1.0 1:1.3862944 2:0.6931472 
-1.0 1:2.1972246 2:1.3862944 
-1.0 1:1.0986123 2:0.6931472 
-1.0 1:2.5649493 2:1.7917595 
-1.0 1:2.0794415 2:1.3862944 
-1.0 1:2.7080503 2:1.9459101 
-1.0 1:2.7080503 2:1.7917595 
-1.0 1:1.609438 2:1.0986123 
-1.0 1:1.7917595 2:1.0986123 
-1.0 1:1.609438 2:1.0986123 
-1.0 1:2.1972246 2:1.3862944 
-1.0 1:2.4849067 2:1.7917595 
-1.0 1:1.0986123 2:0.6931472 
-1.0 1:2.0794415 2:1.0986123 
-1.0 1:2.3025851 2:1.609438 
-1.0 1:2.0794415 2:1.3862944 
-1.0 1:2.4849067 2:1.7917595 
-1.0 1:1.7917595 2:1.0986123 
-1.0 1:2.8332133 2:1.7917595 
-1.0 1:1.3862944 2:0.6931472 
-1.0 1:2.6390574 2:1.609438 
-1.0 1:3.1780539 2:2.3025851 
-1.0 1:3.0910425 2:2.0794415 
-1.0 1:1.609438 2:1.0986123 
-1.0 1:1.0986123 2:0.6931472 
-1.0 1:2.3025851 2:1.3862944 
-1.0 1:2.7080503 2:1.7917595 
-1.0 1:1.9459101 2:1.0986123 
-1.0 1:2.7080503 2:1.9459101 
-1.0 1:2.3025851 2:1.609438 
-1.0 1:2.3025851 2:1.609438 
-1.0 1:1.609438 2:1.0986123 
-1.0 1:1.7917595 2:1.0986123 
-1.0 1:3.871201 2:2.8332133 
-1.0 1:2.0794415 2:1.3862944 
-1.0 1:3.3672957 2:2.3025851 
-1.0 1:2.7725887 2:1.9459101 
-1.0 1:1.609438 2:1.0986123 
-1.0 1:3.0445225 2:2.1972246 
-1.0 1:2.3978953 2:1.609438 
-1.0 1:2.8903718 2:1.9459101 
-1.0 1:2.0794415 2:1.3862944 
-1.0 1:1.0986123 2:0.6931472 
-1.0 1:3.6109178 2:2.4849067 
-1.0 1:2.0794415 2:1.3862944 
-1.0 1:1.0986123 2:0.6931472 
-1.0 1:3.2580965 2:2.3025851 
-1.0 1:1.7917595 2:1.0986123 
-1.0 1:3.0445225 2:2.1972246 
-1.0 1:2.0794415 2:1.3862944 
-1.0 1:1.609438 2:1.0986123 
-1.0 1:2.0794415 2:1.3862944 
-1.0 1:1.0986123 2:0.6931472 
-1.0 1:2.944439 2:1.7917595 
-1.0 1:2.0794415 2:1.0986123 
-1.0 1:2.7725887 2:1.9459101 
-1.0 1:2.3025851 2:1.609438 
-1.0 1:1.609438 2:1.0986123 
-1.0 1:1.0986123 2:0.6931472 
-1.0 1:4.1431346 2:3.0445225 
-1.0 1:3.295837 2:1.9459101 
-1.0 1:2.7080503 2:1.7917595 
-1.0 1:2.8332133 2:1.609438 
-1.0 1:2.4849067 2:1.7917595 
-1.0 1:2.7080503 2:1.609438 
-1.0 1:2.944439 2:2.0794415 
-1.0 1:2.4849067 2:1.609438 
-1.0 1:1.0986123 2:0.6931472 
-1.0 1:2.3978953 2:1.609438 
-1.0 1:1.0986123 2:0.6931472 
-1.0 1:1.609438 2:1.0986123 
-1.0 1:2.0794415 2:1.0986123 
-1.0 1:2.9957323 2:2.0794415 
-1.0 1:2.0794415 2:1.0986123 
-1.0 1:2.4849067 2:1.3862944 
-1.0 1:1.0986123 2:0.6931472 
-1.0 1:2.3978953 2:1.609438 
-1.0 1:1.3862944 2:0.6931472 
-1.0 1:2.3025851 2:1.3862944 
-1.0 1:1.7917595 2:0.6931472 
-1.0 1:2.5649493 2:1.7917595 
-1.0 1:2.0794415 2:1.3862944 
-1.0 1:1.0986123 2:0.6931472 
-1.0 1:2.7080503 2:1.9459101 
-1.0 1:2.4849067 2:1.609438 
-1.0 1:1.609438 2:1.0986123 
-1.0 1:2.0794415 2:1.3862944 
-1.0 1:1.609438 2:1.0986123 
-1.0 1:1.3862944 2:0.6931472 
-1.0 1:2.0794415 2:1.3862944 
-1.0 1:1.7917595 2:1.0986123 
-1.0 1:1.0986123 2:0.6931472 
-1.0 1:1.0986123 2:0.6931472 
-1.0 1:1.3862944 2:0.6931472 
-1.0 1:1.7917595 2:1.0986123 
-1.0 1:2.6390574 2:1.7917595 
-1.0 1:2.7080503 2:1.7917595 
-1.0 1:1.609438 2:1.0986123 
-1.0 1:1.9459101 2:1.0986123 
-1.0 1:2.5649493 2:1.7917595 
-1.0 1:1.609438 2:1.0986123 
-1.0 1:1.3862944 2:0.6931472 
-1.0 1:1.7917595 2:1.0986123 
-1.0 1:1.609438 2:1.0986123 
-1.0 1:1.0986123 2:0.6931472 
-1.0 1:1.7917595 2:1.0986123 
-1.0 1:2.4849067 2:1.3862944 
-1.0 1:1.0986123 2:0.6931472 
-1.0 1:3.218876 2:2.3025851 
-1.0 1:2.7725887 2:1.609438 
-1.0 1:1.0986123 2:0.6931472 
-1.0 1:3.295837 2:2.3025851 
-1.0 1:1.609438 2:1.0986123 
-1.0 1:4.1431346 2:2.9957323 
-1.0 1:3.0445225 2:2.1972246 
-1.0 1:1.7917595 2:1.0986123 
-1.0 1:1.609438 2:1.0986123 
-1.0 1:2.5649493 2:1.7917595 
-1.0 1:1.609438 2:1.0986123 
-1.0 1:1.9459101 2:1.0986123 
-1.0 1:1.609438 2:1.0986123 
-1.0 1:2.5649493 2:1.7917595 
-1.0 1:1.609438 2:1.0986123 
-1.0 1:3.7612002 2:2.7080503 
-1.0 1:1.7917595 2:1.0986123 
-1.0 1:1.0986123 2:0.6931472 
-1.0 1:1.7917595 2:1.0986123 
-1.0 1:2.7725887 2:1.609438 
-1.0 1:2.4849067 2:1.7917595 
-1.0 1:2.9957323 2:2.0794415 
-1.0 1:2.7080503 2:1.9459101 
-1.0 1:1.609438 2:1.0986123 
-1.0 1:2.8903718 2:2.0794415 
-1.0 1:2.0794415 2:1.3862944 
-1.0 1:1.609438 2:1.0986123 
-1.0 1:1.0986123 2:0.6931472 
-1.0 1:3.7612002 2:2.7725887 
-1.0 1:3.0910425 2:1.9459101 
-1.0 1:1.7917595 2:1.0986123 
-1.0 1:1.0986123 2:0.6931472 
-1.0 1:2.3025851 2:1.3862944 
-1.0 1:2.9957323 2:2.0794415 
-1.0 1:1.9459101 2:1.0986123 
-1.0 1:1.0986123 2:0.6931472 
-1.0 1:1.0986123 2:0.6931472 
-1.0 1:2.944439 2:1.9459101 
-1.0 1:2.3025851 2:1.609438 
-1.0 1:2.4849067 2:1.7917595 
-1.0 1:2.3025851 2:1.609438 
-1.0 1:2.3025851 2:1.609438 
-1.0 1:3.4965076 2:2.3978953 
-1.0 1:2.3025851 2:1.609438 
-1.0 1:2.5649493 2:1.7917595 
-1.0 1:2.6390574 2:1.7917595 
-1.0 1:3.1780539 2:2.3025851 
-1.0 1:1.3862944 2:0.6931472 
-1.0 1:1.0986123 2:0.6931472 
-1.0 1:2.8903718 2:1.9459101 
-1.0 1:3.1354942 2:2.0794415 
-1.0 1:1.609438 2:1.0986123 
-1.0 1:2.5649493 2:1.3862944 
-1.0 1:1.7917595 2:1.0986123 
-0.011893010179234777 1:2.9957323 2:2.1972246 
-1.0 1:1.0986123 2:0.6931472 
-1.0 1:3.1354942 2:2.3025851 
-1.0 1:1.0986123 2:0.6931472 
-1.0 1:2.3978953 2:1.0986123 
-1.0 1:2.3025851 2:1.3862944 
-1.0 1:1.0986123 2:0.6931472 
-1.0 1:1.0986123 2:0.6931472 
-1.0 1:1.0986123 2:0.6931472 
-1.0 1:2.3025851 2:1.609438 
-1.0 1:2.6390574 2:1.609438 
-1.0 1:1.0986123 2:0.6931472 
-1.0 1:2.5649493 2:1.609438 
-1.0 1:1.7917595 2:1.0986123 
-1.0 1:1.0986123 2:0.6931472 
-1.0 1:2.4849067 2:1.7917595 
-1.0 1:1.9459101 2:1.0986123 
-1.0 1:1.7917595 2:0.6931472 
-1.0 1:1.609438 2:1.0986123 
-1.0 1:1.0986123 2:0.6931472 
-1.0 1:1.0986123 2:0.6931472 
-1.0 1:3.871201 2:2.5649493 
-1.0 1:1.7917595 2:1.0986123 
-1.0 1:2.3025851 2:1.609438 
-1.0 1:1.7917595 2:1.0986123 
-1.0 1:2.1972246 2:1.3862944 
-1.0 1:1.0986123 2:0.6931472 
-1.0 1:3.1354942 2:2.1972246 
-1.0 1:2.4849067 2:1.609438 
-1.0 1:2.3025851 2:1.3862944 
-1.0 1:1.0986123 2:0.6931472 
-1.0 1:1.3862944 2:0.6931472 
-1.0 1:1.609438 2:1.0986123 
-1.0 1:1.0986123 2:0.6931472 
-1.0 1:1.609438 2:1.0986123 
-1.0 1:2.9957323 2:1.9459101 
-1.0 1:2.3025851 2:1.3862944 
-1.0 1:3.1780539 2:2.0794415 
-1.0 1:2.3025851 2:1.609438 
-1.0 1:2.3025851 2:1.609438 
-1.0 1:1.7917595 2:1.0986123 
-1.0 1:2.5649493 2:1.7917595 
-1.0 1:1.609438 2:1.0986123 
-1.0 1:2.5649493 2:1.7917595 
-1.0 1:2.3978953 2:1.609438 
-1.0 1:1.0986123 2:0.6931472 
-1.0 1:1.609438 2:1.0986123 
-1.0 1:3.2580965 2:1.9459101 
-1.0 1:2.3978953 2:1.609438 
-1.0 1:2.8903718 2:2.0794415 
-1.0 1:1.0986123 2:0.6931472 
-1.0 1:2.9957323 2:2.0794415 
-1.0 1:1.609438 2:1.0986123 
-1.0 1:2.0794415 2:1.3862944 
-1.0 1:2.7725887 2:1.7917595 
