svm_type c_svc
kernel_type linear
nr_class 2
total_sv 141
rho -0.9059832545113764
label 1 -1
nr_sv 70 71
SV
1.0 1:1.3862944 2:0.6931472 
1.0 1:1.0986123 2:0.6931472 
1.0 1:1.0986123 2:0.6931472 
1.0 1:1.0986123 2:0.6931472 
1.0 1:1.0986123 2:0.6931472 
1.0 1:1.0986123 2:0.6931472 
1.0 1:1.0986123 2:0.6931472 
1.0 1:1.3862944 2:0.6931472 
1.0 1:1.0986123 2:0.6931472 
1.0 1:1.0986123 2:0.6931472 
1.0 1:2.1972246 2:1.3862944 
1.0 1:1.0986123 2:0.6931472 
1.0 1:1.3862944 2:0.6931472 
1.0 1:1.3862944 2:0.6931472 
1.0 1:2.944439 2:1.609438 
1.0 1:1.0986123 2:0.6931472 
1.0 1:1.0986123 2:0.6931472 
1.0 1:1.0986123 2:0.6931472 
1.0 1:2.5649493 2:1.3862944 
1.0 1:1.0986123 2:0.6931472 
1.0 1:1.0986123 2:0.6931472 
1.0 1:1.3862944 2:0.6931472 
1.0 1:1.0986123 2:0.6931472 
1.0 1:1.0986123 2:0.6931472 
1.0 1:1.3862944 2:0.6931472 
1.0 1:1.0986123 2:0.6931472 
1.0 1:1.3862944 2:0.6931472 
1.0 1:1.0986123 2:0.6931472 
0.8548018030341511 1:1.609438 2:0.6931472 
1.0 1:1.0986123 2:0.6931472 
1.0 1:1.3862944 2:0.6931472 
1.0 1:1.0986123 2:0.6931472 
1.0 1:1.0986123 2:0.6931472 
1.0 1:1.0986123 2:0.6931472 
1.0 1:1.0986123 2:0.6931472 
1.0 1:1.0986123 2:0.6931472 
1.0 1:1.0986123 2:0.6931472 
1.0 1:1.0986123 2:0.6931472 
1.0 1:1.0986123 2:0.6931472 
1.0 1:1.609438 2:0.6931472 
1.0 1:1.0986123 2:0.6931472 
1.0 1:1.3862944 2:0.6931472 
1.0 1:1.0986123 2:0.6931472 
1.0 1:1.3862944 2:0.6931472 
1.0 1:1.3862944 2:0.6931472 
1.0 1:1.609438 2:0.6931472 
1.0 1:1.609438 2:0.6931472 
1.0 1:1.0986123 2:0.6931472 
1.0 1:1.0986123 2:0.6931472 
1.0 1:1.0986123 2:0.6931472 
1.0 1:1.609438 2:0.6931472 
1.0 1:1.0986123 2:0.6931472 
1.0 1:1.0986123 2:0.6931472 
1.0 1:1.0986123 2:0.6931472 
1.0 1:1.0986123 2:0.6931472 
1.0 1:1.0986123 2:0.6931472 
1.0 1:1.3862944 2:0.6931472 
1.0 1:1.0986123 2:0.6931472 
1.0 1:1.0986123 2:0.6931472 
1.0 1:1.0986123 2:0.6931472 
1.0 1:1.609438 2:0.6931472 
1.0 1:1.609438 2:0.6931472 
1.0 1:1.0986123 2:0.6931472 
1.0 1:1.0986123 2:0.6931472 
1.0 1:1.3862944 2:0.6931472 
1.0 1:1.0986123 2:0.6931472 
1.0 1:1.0986123 2:0.6931472 
1.0 1:1.0986123 2:0.6931472 
1.0 1:1.0986123 2:0.6931472 
1.0 1:1.3862944 2:0.6931472 
-1.0 1:3.295837 2:1.7917595 
-1.0 1:1.0986123 2:0.6931472 
-1.0 1:1.0986123 2:0.6931472 
-1.0 1:1.0986123 2:0.6931472 
-1.0 1:1.0986123 2:0.6931472 
-1.0 1:2.7080503 2:1.3862944 
-1.0 1:1.0986123 2:0.6931472 
-1.0 1:1.7917595 2:1.0986123 
-1.0 1:1.609438 2:1.0986123 
-1.0 1:2.1972246 2:1.0986123 
-1.0 1:1.0986123 2:0.6931472 
-1.0 1:1.0986123 2:0.6931472 
-1.0 1:1.609438 2:1.0986123 
-1.0 1:1.0986123 2:0.6931472 
-1.0 1:1.7917595 2:1.0986123 
-1.0 1:1.3862944 2:0.6931472 
-1.0 1:1.0986123 2:0.6931472 
-0.7147343045565062 1:1.609438 2:1.0986123 
-1.0 1:1.0986123 2:0.6931472 
-1.0 1:2.8332133 2:1.0986123 
-1.0 1:1.0986123 2:0.6931472 
-1.0 1:1.0986123 2:0.6931472 
-1.0 1:2.5649493 2:1.0986123 
-1.0 1:1.0986123 2:0.6931472 
-1.0 1:1.0986123 2:0.6931472 
-1.0 1:1.7917595 2:1.0986123 
-1.0 1:1.0986123 2:0.6931472 
-1.0 1:2.8332133 2:1.3862944 
-1.0 1:1.0986123 2:0.6931472 
-1.0 1:1.0986123 2:0.6931472 
-1.0 1:1.0986123 2:0.6931472 
-1.0 1:1.0986123 2:0.6931472 
-1.0 1:1.0986123 2:0.6931472 
-1.0 1:1.0986123 2:0.6931472 
-1.0 1:1.0986123 2:0.6931472 
-1.0 1:1.0986123 2:0.6931472 
-1.0 1:1.0986123 2:0.6931472 
-1.0 1:1.3862944 2:0.6931472 
-1.0 1:1.0986123 2:0.6931472 
-1.0 1:1.0986123 2:0.6931472 
-1.0 1:1.0986123 2:0.6931472 
-1.0 1:1.0986123 2:0.6931472 
-1.0 1:1.0986123 2:0.6931472 
-0.1400674984776451 1:0.6931472 2:0.6931472 
-1.0 1:0.6931472 2:0.6931472 
-1.0 1:1.3862944 2:0.6931472 
-1.0 1:0.6931472 2:0.6931472 
-1.0 1:0.6931472 2:0.6931472 
-1.0 1:0.6931472 2:0.6931472 
-1.0 1:0.6931472 2:0.6931472 
-1.0 1:0.6931472 2:0.6931472 
-1.0 1:1.0986123 2:0.6931472 
-1.0 1:0.6931472 2:0.6931472 
-1.0 1:1.0986123 2:0.6931472 
-1.0 1:0.6931472 2:0.6931472 
-1.0 1:0.6931472 2:0.6931472 
-1.0 1:1.7917595 2:1.0986123 
-1.0 1:0.6931472 2:0.6931472 
-1.0 1:1.0986123 2:0.6931472 
-1.0 1:0.6931472 2:0.6931472 
-1.0 1:0.6931472 2:0.6931472 
-1.0 1:0.6931472 2:0.6931472 
-1.0 1:0.6931472 2:0.6931472 
-1.0 1:0.6931472 2:0.6931472 
-1.0 1:0.6931472 2:0.6931472 
-1.0 1:0.6931472 2:0.6931472 
-1.0 1:1.3862944 2:0.6931472 
-1.0 1:1.0986123 2:0.6931472 
-1.0 1:0.6931472 2:0.6931472 
-1.0 1:2.0794415 2:1.0986123 
-1.0 1:2.0794415 2:1.0986123 
