svm_type c_svc
kernel_type linear
nr_class 2
total_sv 8
rho -1.0
label 1 -1
nr_sv 4 4
SV
1.0 1:0.6931472 2:0.0 
1.0 1:0.6931472 2:0.0 
1.0 1:0.6931472 2:0.0 
1.0 1:0.6931472 2:0.0 
-1.0 1:0.6931472 2:0.6931472 
-1.0 1:0.6931472 2:0.6931472 
-1.0 1:0.6931472 2:0.6931472 
-1.0 1:0.6931472 2:0.6931472 
